{
  "model": {
    "n_phones": 51,
    "d_model": 128,
    "n_enc_layers": 4,
    "n_dec_layers": 4,
    "n_heads": 4,
    "d_ff": 512,
    "kernel_size": 9,
    "n_mels": 80,
    "n_phrase_types": 4,
    "n_speakers": 6,
    "n_style_dims": 5
  },
  "audio": {
    "sample_rate": 22050,
    "n_fft": 1024,
    "hop_length": 256,
    "n_mels": 80,
    "fmin": 0,
    "fmax": 8000
  },
  "enhance": {
    "spectral_alpha": 0.2,
    "temporal_alpha": 0.2,
    "noise_gate_threshold": -8.0,
    "silence_val": -11.5,
    "fade_frames": 5
  },
  "embeddings": {
    "pitch_emb_weight": [
      -0.4718520939350128,
      0.3480072319507599,
      0.03599158674478531,
      -0.24844077229499817,
      -0.48879358172416687,
      0.11696624755859375,
      -0.34757688641548157,
      0.6962783932685852,
      0.6990188360214233,
      -0.7809556722640991,
      0.6995212435722351,
      0.7396167516708374,
      0.7097010612487793,
      0.5581541657447815,
      -0.07140423357486725,
      0.24832123517990112,
      0.2772340774536133,
      -0.5451119542121887,
      0.08081691712141037,
      -0.617845892906189,
      -0.733388364315033,
      -0.4718374013900757,
      -0.15725843608379364,
      -0.3611977994441986,
      0.5780607461929321,
      0.7235070466995239,
      0.33577316999435425,
      0.2938600182533264,
      -0.3251417577266693,
      0.3219829499721527,
      0.7469310164451599,
      0.4723738431930542,
      0.7367534637451172,
      -0.570817232131958,
      0.5949864387512207,
      0.7570181488990784,
      -0.26938337087631226,
      -0.6690502166748047,
      -0.46779125928878784,
      0.2664697468280792,
      0.2979847192764282,
      -0.8068094849586487,
      0.016109734773635864,
      0.7814584374427795,
      -0.7435590028762817,
      0.606732189655304,
      0.12206266820430756,
      -0.8417539596557617,
      0.15062406659126282,
      -0.736872673034668,
      0.7953256368637085,
      0.19538699090480804,
      -0.6669325232505798,
      0.6065926551818848,
      -0.657956600189209,
      -0.005475011188536882,
      -0.3717712163925171,
      0.3045732378959656,
      0.19518452882766724,
      0.16921421885490417,
      -0.47429466247558594,
      0.26675960421562195,
      0.1587580442428589,
      -0.5907806754112244,
      -0.7708774209022522,
      0.5972164869308472,
      0.5105845332145691,
      0.39942649006843567,
      -0.24956046044826508,
      -0.5721949338912964,
      0.7476399540901184,
      0.2440418303012848,
      0.1503572016954422,
      -0.7743882536888123,
      0.4785187840461731,
      0.7362356185913086,
      0.45532506704330444,
      0.015379700809717178,
      -0.5381869673728943,
      -0.647905707359314,
      0.5987836122512817,
      -0.5849276781082153,
      -0.657740592956543,
      -0.14954401552677155,
      0.9020621180534363,
      -0.8481846451759338,
      0.44409826397895813,
      -0.5046619176864624,
      0.46070778369903564,
      0.38617533445358276,
      0.19666357338428497,
      0.3634187877178192,
      -0.32612645626068115,
      0.5908406376838684,
      0.6711345314979553,
      -0.31312933564186096,
      -0.6427942514419556,
      -0.14357179403305054,
      0.18988990783691406,
      0.14886625111103058,
      0.08167300373315811,
      -0.737086832523346,
      0.6204578280448914,
      0.1049346998333931,
      -0.5234410762786865,
      0.883123517036438,
      0.7197214961051941,
      -0.1420387178659439,
      -0.3323672413825989,
      0.4938015937805176,
      -0.7600757479667664,
      -0.09822407364845276,
      -0.41343146562576294,
      0.7986909747123718,
      -0.7681789398193359,
      0.6871296167373657,
      -0.6524277329444885,
      0.09223262965679169,
      0.10647955536842346,
      -0.34428030252456665,
      0.7843493223190308,
      -0.41328513622283936,
      -0.4179667532444,
      0.08538717776536942,
      0.21645204722881317,
      -0.023538099601864815,
      0.12645187973976135,
      -0.5792424082756042
    ],
    "pitch_emb_bias": [
      0.8056920766830444,
      -1.087903618812561,
      -0.40829068422317505,
      0.8119922280311584,
      0.40089237689971924,
      -0.7970790863037109,
      -0.49638769030570984,
      -0.6095516085624695,
      -0.5087942481040955,
      1.0219451189041138,
      -1.065421462059021,
      -1.0027215480804443,
      0.8910565972328186,
      -0.3678797781467438,
      -0.2953681945800781,
      -0.15687042474746704,
      0.7075633406639099,
      0.5263749361038208,
      0.686918318271637,
      0.7368912100791931,
      0.9715823531150818,
      0.1400008499622345,
      -0.32844802737236023,
      0.43911993503570557,
      -0.4556539058685303,
      -0.797068178653717,
      -0.22948867082595825,
      0.06606444716453552,
      0.262313574552536,
      0.741814911365509,
      -0.4499119818210602,
      -0.4262985289096832,
      0.3818497955799103,
      -0.15409626066684723,
      -0.23718315362930298,
      -0.15042348206043243,
      0.9158446788787842,
      -0.31449034810066223,
      -0.23001828789710999,
      0.5487335324287415,
      -0.5355719923973083,
      0.14262033998966217,
      -0.924720287322998,
      -0.849148690700531,
      0.8099395036697388,
      -0.7618802189826965,
      -0.06037527322769165,
      0.5202084183692932,
      0.3612520396709442,
      0.9144951701164246,
      0.6839989423751831,
      -0.7846881747245789,
      0.7289552688598633,
      -0.8346035480499268,
      -0.7518826127052307,
      -0.6969187259674072,
      -0.08630623668432236,
      0.2248487025499344,
      0.7534404993057251,
      -0.28716954588890076,
      -0.560689389705658,
      -0.15798619389533997,
      0.23280692100524902,
      -0.15599395334720612,
      0.6099476218223572,
      -1.0941036939620972,
      -0.12527994811534882,
      -0.1049526035785675,
      0.9841574430465698,
      -0.26431116461753845,
      -0.08150243014097214,
      -0.37551555037498474,
      -1.0586220026016235,
      0.628909707069397,
      -0.004398281220346689,
      0.5655214786529541,
      -0.6325652599334717,
      0.12305694073438644,
      0.6637198328971863,
      1.0797770023345947,
      0.3186357617378235,
      0.550804615020752,
      -0.09484423696994781,
      0.8287584185600281,
      0.2843853533267975,
      -0.11899822950363159,
      0.15748178958892822,
      -0.756549060344696,
      -0.7590897083282471,
      0.4741721451282501,
      0.415605366230011,
      1.00027596950531,
      -0.4518639147281647,
      0.9623950123786926,
      0.08064841479063034,
      0.8120054006576538,
      -0.7637359499931335,
      0.37536293268203735,
      -0.5324812531471252,
      0.5595834255218506,
      -0.8056475520133972,
      -0.6087031364440918,
      -0.37717756628990173,
      -0.26085177063941956,
      -0.7959527969360352,
      -0.923714816570282,
      -1.12322199344635,
      -0.8930665850639343,
      0.5227975249290466,
      0.007272039540112019,
      -0.6863157749176025,
      0.4920358657836914,
      0.6798037886619568,
      -0.17635242640972137,
      -0.5268811583518982,
      -0.7045549154281616,
      0.45950907468795776,
      -0.5560467839241028,
      -0.1543339043855667,
      0.8844886422157288,
      -0.40524786710739136,
      -0.3010235130786896,
      -0.7406004071235657,
      1.0102043151855469,
      -0.6437638998031616,
      0.5960636734962463,
      0.5243638753890991,
      0.8991788029670715
    ],
    "energy_emb_weight": [
      0.5280427932739258,
      -0.7571389675140381,
      0.7744237780570984,
      -0.6246167421340942,
      -1.0028704404830933,
      -0.009807989001274109,
      0.2929137647151947,
      0.9228315353393555,
      -0.3907299041748047,
      0.8005829453468323,
      0.5401559472084045,
      -0.7671668529510498,
      0.6223317384719849,
      0.6524797081947327,
      0.442669540643692,
      -0.1337525099515915,
      -0.5256121158599854,
      -0.4586063027381897,
      0.927115261554718,
      0.7404410243034363,
      0.0031303451396524906,
      -0.02531142719089985,
      -0.6981952786445618,
      -0.9242241382598877,
      0.2945917844772339,
      0.2636716961860657,
      -0.5888693332672119,
      0.8323419690132141,
      -0.38283148407936096,
      -0.5115782618522644,
      0.09560297429561615,
      -0.08689999580383301,
      -0.0015990188112482429,
      -0.29862886667251587,
      0.3582114577293396,
      0.08702827990055084,
      -0.14946570992469788,
      0.21992233395576477,
      -0.28433918952941895,
      -0.6702976226806641,
      -0.09345393627882004,
      -0.4968227446079254,
      -0.6693913340568542,
      0.6136069893836975,
      -0.6480178833007812,
      0.4663453698158264,
      -0.12748032808303833,
      -0.6594420671463013,
      -0.24132642149925232,
      0.24862857162952423,
      -0.4874986708164215,
      -0.8914220929145813,
      -0.011508996598422527,
      0.20445314049720764,
      -0.5466720461845398,
      -0.6858774423599243,
      0.5801023840904236,
      0.6878055334091187,
      -0.7384237051010132,
      0.46425315737724304,
      -0.7766539454460144,
      -0.3104056417942047,
      0.668239951133728,
      0.3732563555240631,
      -0.9671705365180969,
      -0.9431653618812561,
      -0.8871738910675049,
      0.423016220331192,
      -0.24972347915172577,
      -0.5529918670654297,
      0.040857043117284775,
      -0.707873523235321,
      -0.13375331461429596,
      -0.17100869119167328,
      0.42347148060798645,
      -0.4239303171634674,
      0.24814258515834808,
      0.20722027122974396,
      -0.04148600995540619,
      0.9681689143180847,
      0.8605306148529053,
      -0.17578910291194916,
      0.053001731634140015,
      -0.19810707867145538,
      -0.4620003402233124,
      -1.0092424154281616,
      0.7418814897537231,
      0.025056688115000725,
      -0.4254741668701172,
      -0.2531573176383972,
      0.4516560137271881,
      0.9951388239860535,
      -0.3044493794441223,
      -0.7656709551811218,
      0.9509050250053406,
      -0.15828152000904083,
      0.6965232491493225,
      -0.6382518410682678,
      0.815161943435669,
      -0.1827191859483719,
      0.20428211987018585,
      0.01577525958418846,
      0.8063828349113464,
      -0.03669757395982742,
      -0.8769891858100891,
      -0.8886954188346863,
      -0.7116422057151794,
      -0.47655799984931946,
      0.17953918874263763,
      -0.3815726041793823,
      0.7016011476516724,
      -0.17151394486427307,
      0.47943830490112305,
      0.13464291393756866,
      0.08243508636951447,
      -0.2625579535961151,
      -0.6028842926025391,
      0.660379946231842,
      -0.23397517204284668,
      -0.5301568508148193,
      -0.6518275737762451,
      -0.8378422260284424,
      -0.843288242816925,
      -0.3921438455581665,
      -0.42577219009399414,
      0.1603410243988037,
      0.553947389125824,
      -0.40311524271965027
    ],
    "energy_emb_bias": [
      0.3368813693523407,
      -0.6043761968612671,
      0.1847822517156601,
      -0.3168005645275116,
      -0.3359870910644531,
      0.3616243898868561,
      0.578422486782074,
      0.5259562134742737,
      -0.613232433795929,
      0.3978572189807892,
      0.005132089834660292,
      -0.8658667206764221,
      -0.43608540296554565,
      -0.16412466764450073,
      0.7604233622550964,
      0.5735066533088684,
      0.4605567753314972,
      0.3885035216808319,
      1.0097349882125854,
      -0.17692553997039795,
      0.12561914324760437,
      -0.6054587960243225,
      -0.33121320605278015,
      -0.16236312687397003,
      -0.8462069034576416,
      -0.8889585137367249,
      0.4416710138320923,
      1.000922441482544,
      0.42540743947029114,
      -1.0217533111572266,
      0.587548553943634,
      -0.7951546907424927,
      -0.4803817868232727,
      -0.024022722616791725,
      0.5658596754074097,
      -0.1308518648147583,
      -0.253518670797348,
      -0.7026718854904175,
      0.060336098074913025,
      -0.28521499037742615,
      -0.673289954662323,
      0.8310399651527405,
      0.6962484121322632,
      -0.24447214603424072,
      -0.7568107843399048,
      0.8475391268730164,
      -0.2169935405254364,
      -0.3349558413028717,
      -0.661550760269165,
      -0.134568989276886,
      0.8942586183547974,
      -0.5418364405632019,
      0.5514212250709534,
      0.21028903126716614,
      0.7823571562767029,
      0.5751829147338867,
      -0.5243788361549377,
      0.004247753415256739,
      0.8668173551559448,
      0.5546874403953552,
      -0.5282543301582336,
      -0.8693181276321411,
      0.9681537747383118,
      0.5236298441886902,
      0.8219351172447205,
      -0.3148277699947357,
      0.16062408685684204,
      -0.2509830594062805,
      -0.659787654876709,
      -0.8204095363616943,
      -0.8637145161628723,
      -0.5648890733718872,
      0.4202534854412079,
      0.47003456950187683,
      0.3624243140220642,
      -0.352695107460022,
      -0.9903514385223389,
      -0.10899922251701355,
      -0.19161982834339142,
      0.8701429963111877,
      0.14020317792892456,
      0.24726741015911102,
      0.08697175979614258,
      0.03398463502526283,
      -0.556820809841156,
      0.7167308926582336,
      -0.8897369503974915,
      0.7267665266990662,
      0.25707048177719116,
      0.23993639647960663,
      0.15276092290878296,
      -0.1598571091890335,
      -0.0458989180624485,
      0.621599018573761,
      0.6007439494132996,
      0.259120374917984,
      -0.7824832797050476,
      0.27941808104515076,
      0.06002037227153778,
      -0.2982589900493622,
      0.723763644695282,
      0.13218683004379272,
      -0.44468340277671814,
      0.2196871042251587,
      0.9332637786865234,
      -0.7314577698707581,
      -0.3171765208244324,
      -0.8014011979103088,
      -0.09157193452119827,
      -1.1507161855697632,
      0.6722254157066345,
      0.9798318147659302,
      -0.7945006489753723,
      -0.7601116895675659,
      -0.5672817826271057,
      0.49535131454467773,
      -0.49785998463630676,
      -0.8427552580833435,
      -0.5713135600090027,
      0.9453125596046448,
      0.456153005361557,
      0.10082951188087463,
      0.2755483388900757,
      0.8399853706359863,
      -0.07973125576972961,
      -0.12458377331495285,
      -0.03342154622077942,
      0.43145450949668884
    ]
  }
}