{
  "model": {
    "n_phones": 51,
    "d_model": 256,
    "n_enc_layers": 4,
    "n_dec_layers": 4,
    "n_heads": 4,
    "d_ff": 1024,
    "kernel_size": 9,
    "n_mels": 80,
    "n_phrase_types": 4,
    "n_speakers": 6,
    "n_style_dims": 5
  },
  "audio": {
    "sample_rate": 22050,
    "n_fft": 1024,
    "hop_length": 256,
    "n_mels": 80,
    "fmin": 0,
    "fmax": 8000
  },
  "enhance": {
    "spectral_alpha": 0.2,
    "temporal_alpha": 0.2,
    "noise_gate_threshold": -8.0,
    "silence_val": -11.5,
    "fade_frames": 5
  },
  "embeddings": {
    "pitch_emb_weight": [
      0.5014254450798035,
      -0.1562611609697342,
      -0.22382281720638275,
      0.43865662813186646,
      0.8032799959182739,
      0.8287513256072998,
      -0.31014785170555115,
      -0.6866253614425659,
      -0.12235341221094131,
      -0.9168154001235962,
      -0.7175681591033936,
      0.10780386626720428,
      -0.8063154220581055,
      0.44288644194602966,
      -0.7771909832954407,
      0.08034307509660721,
      0.35306990146636963,
      0.3104284703731537,
      0.7108171582221985,
      -0.5116434097290039,
      0.11880310624837875,
      0.7457138299942017,
      -0.29920873045921326,
      -0.6181641221046448,
      0.2283654510974884,
      0.0887460708618164,
      -0.27369028329849243,
      0.8031945824623108,
      0.922741711139679,
      -0.6924852132797241,
      0.6214315891265869,
      0.30329304933547974,
      -0.1396058350801468,
      0.11157621443271637,
      -0.514388382434845,
      0.39760828018188477,
      -0.782614529132843,
      0.6418376564979553,
      -0.33401355147361755,
      0.8232752680778503,
      -0.8436267375946045,
      -0.046622175723314285,
      -0.20299039781093597,
      -0.10005930066108704,
      -0.13402554392814636,
      0.6834806799888611,
      0.618950605392456,
      0.794621467590332,
      -0.04013312608003616,
      0.6057006120681763,
      0.5015547871589661,
      0.4349994957447052,
      -0.7145966291427612,
      -0.011444772593677044,
      0.259711354970932,
      -0.09270918369293213,
      -0.03192876651883125,
      0.6928079128265381,
      -0.3280285894870758,
      0.63405442237854,
      -0.5703104734420776,
      0.44347459077835083,
      -0.8084847927093506,
      0.8199834823608398,
      0.01443470362573862,
      -0.2986913025379181,
      0.1841815561056137,
      -0.43384653329849243,
      0.532645046710968,
      -0.28449690341949463,
      0.904296338558197,
      0.5191401243209839,
      0.027603358030319214,
      0.20133528113365173,
      -0.2025567889213562,
      -0.4108801782131195,
      0.5119909048080444,
      0.16650013625621796,
      0.7670525312423706,
      -0.6635722517967224,
      0.27261385321617126,
      0.5389248132705688,
      0.8749228119850159,
      0.4849858283996582,
      0.3396082818508148,
      0.7650994062423706,
      0.6624155044555664,
      -0.7867839932441711,
      0.344308465719223,
      -0.10904429107904434,
      -0.9047641158103943,
      -0.2554371953010559,
      -0.8041715621948242,
      0.15785159170627594,
      0.5897094011306763,
      0.5836337804794312,
      -0.7034981846809387,
      -0.9130074977874756,
      0.15006348490715027,
      0.21726642549037933,
      -0.9243988990783691,
      -0.03336120769381523,
      0.6192959547042847,
      0.7326295375823975,
      -0.2544480562210083,
      0.32816019654273987,
      -0.9677181839942932,
      -0.8362817764282227,
      -0.6813110113143921,
      -0.028239218518137932,
      -0.19457082450389862,
      -0.23051732778549194,
      0.8521024584770203,
      -0.8182033896446228,
      0.8636656403541565,
      -0.11595132946968079,
      0.2574421763420105,
      0.24091775715351105,
      -0.5639723539352417,
      0.34064897894859314,
      0.6557007431983948,
      -0.042479634284973145,
      -0.8335129618644714,
      -0.7026515603065491,
      -0.30112424492836,
      -0.5464760661125183,
      0.43956708908081055,
      0.7945643067359924,
      0.08406446874141693,
      -0.8641048073768616,
      -0.6588782668113708,
      0.0131476866081357,
      -0.6968573927879333,
      0.48361510038375854,
      0.1220015287399292,
      0.0807354599237442,
      0.42614904046058655,
      -0.2694871723651886,
      0.5789730548858643,
      0.545854926109314,
      -0.8293778896331787,
      -0.07434459775686264,
      0.043750081211328506,
      0.17994962632656097,
      0.7288917303085327,
      0.44020846486091614,
      0.3312242329120636,
      -0.3675592839717865,
      -0.3107416331768036,
      0.30904000997543335,
      -0.6325468420982361,
      0.10634355992078781,
      0.39680296182632446,
      -0.6574941873550415,
      0.03758080303668976,
      0.7881656885147095,
      0.35476216673851013,
      -0.12713301181793213,
      -0.2685665786266327,
      -0.5510366559028625,
      -0.5353373885154724,
      -0.33019566535949707,
      0.17148636281490326,
      0.9323844313621521,
      0.21468767523765564,
      0.424262136220932,
      0.6544927358627319,
      0.6992605924606323,
      0.6501689553260803,
      -0.526224672794342,
      -0.07215198129415512,
      -0.43817463517189026,
      -0.28987351059913635,
      -0.5799769759178162,
      -0.6917371153831482,
      0.6927255392074585,
      -0.9702841639518738,
      -0.7078084349632263,
      -0.7470037341117859,
      -0.4266248941421509,
      -0.7153282761573792,
      0.7332777380943298,
      0.7177252173423767,
      -0.666323184967041,
      0.4577052891254425,
      -0.7797234058380127,
      -0.3107196092605591,
      0.00021278519125189632,
      -0.7140852808952332,
      -0.4900411069393158,
      0.2470484972000122,
      -0.1645725816488266,
      -0.2546190023422241,
      -0.914959192276001,
      -0.7451043128967285,
      -0.5188918709754944,
      0.17918221652507782,
      -0.9437569975852966,
      0.8458875417709351,
      -0.6245147585868835,
      -0.49927690625190735,
      0.7477161288261414,
      -0.6243754029273987,
      -0.9107891917228699,
      -0.6040009260177612,
      0.33032500743865967,
      -0.767680287361145,
      0.15044628083705902,
      0.32006269693374634,
      0.259351909160614,
      0.5296252965927124,
      -0.3497181832790375,
      0.43688634037971497,
      -0.40471306443214417,
      0.7325010299682617,
      -0.9025571346282959,
      -0.6395052075386047,
      0.6946396827697754,
      -0.16876210272312164,
      0.027870064601302147,
      -0.2195981740951538,
      0.3579716384410858,
      0.005742680747061968,
      0.2030021995306015,
      0.17797499895095825,
      -0.3010091781616211,
      -0.6345863938331604,
      -0.32297277450561523,
      -0.6417232155799866,
      0.28089413046836853,
      -0.08577338606119156,
      0.5666723847389221,
      -0.7962710857391357,
      0.6462351083755493,
      0.6965159177780151,
      -0.7840982675552368,
      0.41447779536247253,
      0.42580878734588623,
      -0.9811573028564453,
      0.6962783336639404,
      -0.011498980224132538,
      -0.5735918283462524,
      -0.023072650656104088,
      -0.9814668297767639,
      0.7957627177238464,
      0.21721257269382477,
      0.7961660027503967,
      0.5212215781211853,
      -0.7412846088409424,
      -0.7487746477127075,
      -0.9303470253944397,
      0.1422596126794815,
      0.8546448945999146,
      -0.5447256565093994,
      -0.6389713287353516,
      0.7269101738929749
    ],
    "pitch_emb_bias": [
      -0.851260781288147,
      0.87724769115448,
      -0.40495625138282776,
      0.361319363117218,
      -0.7916560769081116,
      0.31039923429489136,
      0.9842455983161926,
      0.27767449617385864,
      0.7550684213638306,
      -0.10208731144666672,
      0.6729833483695984,
      -0.8517409563064575,
      -0.5243315100669861,
      0.33012863993644714,
      1.0082391500473022,
      0.6164458394050598,
      -0.33827853202819824,
      -0.01133861392736435,
      0.8271323442459106,
      0.3367219865322113,
      0.004170115105807781,
      0.8093620538711548,
      0.8011559844017029,
      -0.27343642711639404,
      0.7802668213844299,
      0.3802691698074341,
      -0.3639061748981476,
      0.8737906217575073,
      -0.8209714889526367,
      0.9185037016868591,
      0.9262681007385254,
      -0.30908891558647156,
      0.46990376710891724,
      0.672380268573761,
      0.21396033465862274,
      -0.5015888810157776,
      0.22360919415950775,
      -0.6940142512321472,
      0.4270458221435547,
      -0.30916628241539,
      0.9282033443450928,
      0.4398444890975952,
      0.8726171255111694,
      -0.36360418796539307,
      -0.8060239553451538,
      -0.7054120898246765,
      -0.17522644996643066,
      -0.34535425901412964,
      0.5094181895256042,
      0.08018556237220764,
      -0.09738906472921371,
      0.7964755892753601,
      -0.08547288924455643,
      0.13909053802490234,
      0.13161535561084747,
      -0.8954414129257202,
      0.5218282341957092,
      -0.5267831683158875,
      -0.40590524673461914,
      0.5497123003005981,
      -0.6158038973808289,
      -0.37988537549972534,
      -0.5858237147331238,
      -1.0474811792373657,
      -0.06026358902454376,
      -0.4429939091205597,
      -0.8139017820358276,
      -0.3286391496658325,
      -1.0454072952270508,
      -0.9815198183059692,
      0.16480311751365662,
      0.7340349555015564,
      0.09195484966039658,
      -0.9445051550865173,
      -1.007581353187561,
      -0.3008643686771393,
      -0.5573669075965881,
      0.14566710591316223,
      -0.8946797847747803,
      -0.1277238428592682,
      -0.9511456489562988,
      -0.26403889060020447,
      -0.8283659219741821,
      0.8736993670463562,
      -0.8772889971733093,
      0.4880887269973755,
      -0.9591740369796753,
      0.4771427810192108,
      0.8753955364227295,
      0.17204846441745758,
      -0.3165976107120514,
      0.3952445089817047,
      -0.6809098720550537,
      -0.3383994698524475,
      -0.8809906840324402,
      0.20341983437538147,
      0.9846606850624084,
      0.3932819068431854,
      0.7288422584533691,
      0.5371644496917725,
      -0.3777680993080139,
      0.31432339549064636,
      0.3660777807235718,
      -0.48043718934059143,
      0.884799063205719,
      -0.9262755513191223,
      -0.9933686256408691,
      -0.2627142667770386,
      -0.9159570336341858,
      0.6186357140541077,
      -0.7247973084449768,
      0.7838334441184998,
      -0.07513439655303955,
      -0.39254966378211975,
      -0.42176511883735657,
      -0.7060379981994629,
      -0.834092378616333,
      0.14475657045841217,
      0.3955451250076294,
      -0.6132705211639404,
      0.7213690280914307,
      0.6293901801109314,
      -0.8677051663398743,
      0.7279115319252014,
      0.9284200668334961,
      0.571358859539032,
      -0.9612175226211548,
      -0.24723291397094727,
      0.12211765348911285,
      -0.8623613715171814,
      0.013536171056330204,
      0.4554029703140259,
      -0.22808372974395752,
      -0.28361403942108154,
      0.7367205023765564,
      0.058367159217596054,
      -0.24247772991657257,
      0.6790688633918762,
      -1.0444825887680054,
      0.8074864745140076,
      -0.9033305644989014,
      -0.4039405286312103,
      0.4354596734046936,
      -0.7360727787017822,
      -0.15151695907115936,
      -0.7583321332931519,
      -0.8313577771186829,
      -0.4612942934036255,
      0.2359044849872589,
      0.3852647840976715,
      0.6789321303367615,
      0.08821277320384979,
      -0.19468556344509125,
      0.18740741908550262,
      -0.22717727720737457,
      0.7994861006736755,
      -0.3915978968143463,
      -0.5319570899009705,
      -0.916648805141449,
      -0.6146670579910278,
      0.4599844813346863,
      0.05917869880795479,
      -0.2000219076871872,
      -0.053379662334918976,
      -0.8966050744056702,
      0.6953359246253967,
      -0.8530356287956238,
      0.5032368898391724,
      -0.5154455900192261,
      0.2121453732252121,
      -0.9270547032356262,
      1.0131415128707886,
      -0.9936187267303467,
      -0.9220511317253113,
      -0.973450243473053,
      0.3081149160861969,
      0.04447368532419205,
      -0.06856804341077805,
      -0.2354998141527176,
      -0.03647049516439438,
      -0.8760272860527039,
      -0.6968663334846497,
      0.7543186545372009,
      -0.8087937235832214,
      0.4967091381549835,
      0.7674309015274048,
      -0.4001658856868744,
      -0.05477054417133331,
      -0.06076718866825104,
      -0.31196796894073486,
      -0.9430422186851501,
      -0.8985251784324646,
      0.5752755999565125,
      0.5030141472816467,
      0.1411912888288498,
      -0.2100076526403427,
      -0.4891059100627899,
      0.3188989758491516,
      -0.41100597381591797,
      -0.8268193006515503,
      -0.1551675796508789,
      0.09645100682973862,
      0.8201425671577454,
      -0.389343798160553,
      -0.3761180341243744,
      -0.2413385808467865,
      0.3419624865055084,
      0.48830220103263855,
      0.2940005660057068,
      0.2989194989204407,
      0.8491613864898682,
      0.740691065788269,
      -0.07837767899036407,
      -0.8525427579879761,
      -0.4382672905921936,
      0.5952966213226318,
      -0.1910647451877594,
      0.0037829442881047726,
      0.12282676249742508,
      0.819024384021759,
      -0.728359580039978,
      -0.3347136974334717,
      0.7394369840621948,
      -1.0389903783798218,
      0.09720209985971451,
      0.8920696973800659,
      0.8619964122772217,
      0.025255469605326653,
      -0.4395717978477478,
      0.8721217513084412,
      0.10682296007871628,
      -0.8097318410873413,
      0.468303918838501,
      -0.9914070963859558,
      0.5358816981315613,
      -0.856354296207428,
      0.7886285781860352,
      0.5425410866737366,
      -0.4628731310367584,
      -0.5067126154899597,
      0.6111856698989868,
      1.004193902015686,
      -0.21480025351047516,
      0.8665556311607361,
      -0.06984595954418182,
      1.0121934413909912,
      0.2201205939054489,
      0.3119952380657196,
      -0.5625089406967163,
      -0.5529969930648804,
      0.3035084903240204,
      0.3881888687610626,
      0.4710277318954468,
      0.8703148365020752,
      0.7658944725990295,
      -0.31513622403144836
    ],
    "energy_emb_weight": [
      -0.7732519507408142,
      -0.2232998162508011,
      0.3038630783557892,
      -0.5811629891395569,
      -0.6530704498291016,
      0.5840478539466858,
      -0.6135762333869934,
      -0.7366297841072083,
      0.23404763638973236,
      0.39208391308784485,
      -0.6411410570144653,
      0.3230692446231842,
      0.2706523537635803,
      0.3101223111152649,
      -0.20480908453464508,
      0.8834987282752991,
      0.1631055772304535,
      0.7175716757774353,
      -0.7937923669815063,
      -0.8803048133850098,
      -0.10249162465333939,
      0.36446911096572876,
      0.005656437948346138,
      -0.017475992441177368,
      0.22888343036174774,
      -0.578959047794342,
      0.884197473526001,
      0.5453953742980957,
      0.8423184752464294,
      0.7193112969398499,
      0.6338229775428772,
      -0.13156290352344513,
      -0.540812611579895,
      0.5438015460968018,
      0.23042108118534088,
      -0.9042474031448364,
      -0.9946459531784058,
      0.34256330132484436,
      0.7838775515556335,
      0.8694377541542053,
      0.48546329140663147,
      -0.5669323801994324,
      0.6268720626831055,
      0.22703783214092255,
      -0.44212979078292847,
      -0.6195796132087708,
      0.1824854016304016,
      0.027452562004327774,
      -0.3501857817173004,
      -0.7434962391853333,
      0.6113815903663635,
      0.24490174651145935,
      -0.345572292804718,
      -0.6183809041976929,
      0.5091367363929749,
      -0.5299055576324463,
      0.1903853565454483,
      0.48880383372306824,
      -0.8022720813751221,
      0.20593327283859253,
      0.48649463057518005,
      -0.8507442474365234,
      -0.5310801863670349,
      0.34485527873039246,
      -0.09768537431955338,
      0.23429900407791138,
      0.7079649567604065,
      -0.19173727929592133,
      -0.809947669506073,
      -0.47993069887161255,
      0.4394253194332123,
      -0.6102955341339111,
      0.18766629695892334,
      0.917881429195404,
      -0.36356425285339355,
      -0.9753392338752747,
      0.8710142374038696,
      -0.2782450318336487,
      0.5981700420379639,
      0.5343340039253235,
      0.8677915930747986,
      -0.20416805148124695,
      0.20995527505874634,
      -0.5999028086662292,
      0.21327251195907593,
      0.46348950266838074,
      -0.5292624235153198,
      0.28186947107315063,
      0.5174844264984131,
      0.0735967755317688,
      0.30527982115745544,
      -0.4520838260650635,
      -0.045167289674282074,
      -0.7761209607124329,
      -0.36812686920166016,
      0.9493162631988525,
      -0.5497682690620422,
      -0.5743611454963684,
      -0.5237016677856445,
      0.362424373626709,
      -0.9364805221557617,
      -0.4810657799243927,
      0.8141133189201355,
      -0.5128973126411438,
      0.40326857566833496,
      -0.45165011286735535,
      -0.6299793124198914,
      -0.027950899675488472,
      0.6076241731643677,
      -0.8130745887756348,
      0.7812665104866028,
      -0.11219334602355957,
      0.3209930658340454,
      0.03313211724162102,
      -0.6080406904220581,
      0.362898588180542,
      0.13506551086902618,
      0.9686291217803955,
      0.009887057356536388,
      -0.9026430249214172,
      -0.18296115100383759,
      0.22234977781772614,
      0.6494771242141724,
      -0.9813584089279175,
      -0.8948379755020142,
      0.3898542523384094,
      0.0939754843711853,
      -0.8528842926025391,
      -0.2665257453918457,
      -0.5720224380493164,
      0.29977843165397644,
      -0.10747568309307098,
      -0.7758437991142273,
      -0.8252993226051331,
      0.5049603581428528,
      0.7311239242553711,
      -0.9388609528541565,
      0.16704061627388,
      -0.8678300380706787,
      0.5405956506729126,
      -0.4768223762512207,
      0.19354473054409027,
      0.8654505014419556,
      0.9061037302017212,
      0.0878458023071289,
      0.36385467648506165,
      0.38996201753616333,
      0.4077165126800537,
      0.5964780449867249,
      -0.9045048952102661,
      0.030993536114692688,
      -0.33370041847229004,
      0.16285079717636108,
      -0.3352999985218048,
      -0.36036235094070435,
      -0.18818692862987518,
      -0.851128101348877,
      0.1415722370147705,
      0.9811227321624756,
      -0.3406469225883484,
      -0.28636467456817627,
      -0.713683545589447,
      -0.7292710542678833,
      -0.3704428970813751,
      0.03815123066306114,
      -0.46119701862335205,
      0.2467469424009323,
      -0.023229729384183884,
      -0.30967703461647034,
      -0.8185335397720337,
      -0.751183271408081,
      0.6649482846260071,
      -0.8148840069770813,
      0.37363794445991516,
      0.0654163584113121,
      0.49695783853530884,
      -0.41792336106300354,
      -0.005242018960416317,
      0.48445257544517517,
      -0.7653529047966003,
      0.7518807053565979,
      0.5196889042854309,
      -0.28201866149902344,
      -0.947096049785614,
      -0.9145434498786926,
      -0.23519109189510345,
      -0.7771122455596924,
      0.9277982115745544,
      -0.5864076614379883,
      -0.3445952534675598,
      -0.39858800172805786,
      -0.030070513486862183,
      -0.28768208622932434,
      0.09113055467605591,
      -0.7717270851135254,
      -0.2893134355545044,
      0.0795363038778305,
      0.07913242280483246,
      -0.14692935347557068,
      0.33264225721359253,
      0.1770862638950348,
      -0.4928729236125946,
      -0.6184006333351135,
      0.6035175919532776,
      0.49206745624542236,
      -0.9178769588470459,
      -0.15440206229686737,
      -0.6719256043434143,
      -0.9062823057174683,
      0.8898545503616333,
      0.9733641147613525,
      -0.4733501374721527,
      0.5079129338264465,
      -0.1613464206457138,
      0.02048403210937977,
      -0.026516998186707497,
      -0.7597866654396057,
      0.6722766160964966,
      0.7049418687820435,
      0.7721999287605286,
      0.9224069714546204,
      0.1683880090713501,
      -0.5569523572921753,
      -0.07120002061128616,
      0.9215149283409119,
      0.6636797189712524,
      -0.6118795871734619,
      0.6347769498825073,
      -0.059962816536426544,
      -0.9289626479148865,
      0.32757648825645447,
      0.6725703477859497,
      0.9607132077217102,
      -0.2112109214067459,
      -0.2046334445476532,
      0.850963294506073,
      0.7065007090568542,
      0.32995477318763733,
      -0.859199583530426,
      -0.26912498474121094,
      -0.11397511512041092,
      -0.5610426068305969,
      -0.8986575603485107,
      0.5433470606803894,
      0.5521684288978577,
      0.473357230424881,
      0.5198574662208557,
      -0.5176781415939331,
      0.6342058777809143,
      -0.3461076617240906,
      -0.7765313982963562,
      0.7106848359107971,
      0.4808361828327179,
      0.4358079135417938,
      0.3002144396305084,
      0.5015658140182495
    ],
    "energy_emb_bias": [
      -0.9905300140380859,
      -0.5256261825561523,
      0.7905944585800171,
      -0.146479532122612,
      -0.09255548566579819,
      0.66170734167099,
      0.0834357738494873,
      0.8115398287773132,
      0.7972869873046875,
      0.546567440032959,
      0.9841150641441345,
      0.8740127086639404,
      0.2901539206504822,
      0.9483906030654907,
      -0.29547640681266785,
      -0.5373942255973816,
      -0.7133501172065735,
      0.4634609520435333,
      0.8663527965545654,
      0.09241744875907898,
      0.10284917801618576,
      0.8175450563430786,
      0.2794772684574127,
      0.44801831245422363,
      0.8650345206260681,
      -0.8456600904464722,
      0.080329529941082,
      -0.9840956926345825,
      0.8382676839828491,
      -0.34754839539527893,
      0.9630091190338135,
      0.6358762979507446,
      0.5981361865997314,
      -0.9197013974189758,
      0.23198537528514862,
      0.8063912391662598,
      0.022335436195135117,
      0.25843924283981323,
      0.5827246308326721,
      0.7454436421394348,
      0.2502444088459015,
      -0.9251794219017029,
      -0.23337163031101227,
      -0.8894405961036682,
      -0.7112216949462891,
      0.09329652041196823,
      0.22094696760177612,
      -0.9595838189125061,
      -0.7818307280540466,
      -0.07210975885391235,
      -0.05485939234495163,
      0.7586790919303894,
      -0.5488553643226624,
      -0.4275766909122467,
      -0.7015845775604248,
      -0.022590989246964455,
      0.6059663891792297,
      -0.22884072363376617,
      -0.1352767050266266,
      -0.27611127495765686,
      0.9095471501350403,
      0.37877172231674194,
      -0.4091661870479584,
      0.8523866534233093,
      0.4306055009365082,
      0.9118995666503906,
      0.29450559616088867,
      0.6335497498512268,
      0.2059750258922577,
      -0.08382004499435425,
      0.16757449507713318,
      0.7223380208015442,
      -0.18497006595134735,
      -0.7852190136909485,
      -0.11773959547281265,
      -0.07233847677707672,
      -0.13939830660820007,
      0.8664052486419678,
      -0.07422176748514175,
      -0.6118241548538208,
      0.35611024498939514,
      0.6715946793556213,
      -0.5516451001167297,
      -0.8174793124198914,
      -0.2899531126022339,
      -0.1854580193758011,
      -0.7564220428466797,
      0.051881033927202225,
      -0.44717055559158325,
      -0.10230007767677307,
      0.24537934362888336,
      0.23087789118289948,
      0.17686693370342255,
      -0.8775055408477783,
      0.7397437691688538,
      -0.5300620794296265,
      0.35352739691734314,
      0.1363198459148407,
      -0.5424593091011047,
      -0.7703062295913696,
      -0.896731972694397,
      0.600555956363678,
      0.6332979798316956,
      0.5039479732513428,
      0.6608389019966125,
      -0.7614021897315979,
      -0.6115951538085938,
      0.23899663984775543,
      0.9427934288978577,
      -0.7040576338768005,
      0.10933811962604523,
      -0.17138244211673737,
      0.5795361399650574,
      0.43409666419029236,
      -0.017418334260582924,
      0.8429266214370728,
      0.17699077725410461,
      -0.8398215174674988,
      -0.15774020552635193,
      -0.20217861235141754,
      0.054574448615312576,
      0.15819157660007477,
      0.683125913143158,
      0.16903577744960785,
      0.06668591499328613,
      -0.1899738758802414,
      0.3235290050506592,
      0.1919419765472412,
      0.8208134770393372,
      -0.6628820300102234,
      -0.8630415201187134,
      0.19957678020000458,
      0.40340250730514526,
      -0.6106687188148499,
      -0.21043582260608673,
      -0.9567247629165649,
      -0.6007757782936096,
      -0.5507987141609192,
      0.2561037242412567,
      -0.6048298478126526,
      0.021739546209573746,
      0.5008683204650879,
      -0.0792044848203659,
      0.7975659370422363,
      -0.2476601004600525,
      0.7112241983413696,
      0.09486046433448792,
      -0.9852218627929688,
      -0.7946291565895081,
      -0.6580628752708435,
      -0.5409801602363586,
      0.7170660495758057,
      -0.8016452193260193,
      0.8281833529472351,
      -0.4566432237625122,
      -0.29624900221824646,
      -0.3286339342594147,
      0.8154891133308411,
      -0.4118976593017578,
      0.8877873420715332,
      0.9949930906295776,
      -0.5191000699996948,
      -0.6329392194747925,
      -0.5855575203895569,
      -0.11775019019842148,
      -0.06927722692489624,
      -0.7100333571434021,
      0.34823116660118103,
      -0.6856850385665894,
      0.1919519156217575,
      0.6706632971763611,
      -0.545522928237915,
      -0.1942681074142456,
      -0.6523943543434143,
      -0.6678540110588074,
      -0.3110133111476898,
      -0.1079055517911911,
      0.01623486913740635,
      -0.5648754239082336,
      -0.6403379440307617,
      -0.7372534871101379,
      -0.37242835760116577,
      0.4473316967487335,
      0.4176473319530487,
      -0.3983837068080902,
      -0.0721355453133583,
      -0.8754784464836121,
      0.036982886493206024,
      -0.41130805015563965,
      1.0061546564102173,
      -0.38898351788520813,
      0.14823852479457855,
      0.8933973908424377,
      0.6911761164665222,
      0.10941489785909653,
      -0.44198185205459595,
      -0.03905326873064041,
      -0.6326086521148682,
      0.05693240463733673,
      0.34603801369667053,
      -0.43357858061790466,
      0.0851270779967308,
      -0.5509065985679626,
      0.4332377314567566,
      0.5870562791824341,
      -0.9268280863761902,
      -0.2119869589805603,
      0.10924802720546722,
      -0.8267684578895569,
      0.11556483060121536,
      -0.2197382152080536,
      -0.11116129159927368,
      0.44305548071861267,
      -0.6364723443984985,
      -0.20154865086078644,
      0.8254890441894531,
      -0.7467087507247925,
      -0.5422009229660034,
      -0.13423117995262146,
      -0.5803969502449036,
      0.19798432290554047,
      1.0016186237335205,
      -0.6567230224609375,
      -0.3911336660385132,
      0.7229565382003784,
      0.8458206653594971,
      0.020027853548526764,
      0.29377731680870056,
      0.7256881594657898,
      -0.7745493054389954,
      -0.48402467370033264,
      -0.8341877460479736,
      0.1895410567522049,
      -0.39065685868263245,
      -0.7292184233665466,
      0.8082287907600403,
      0.718518853187561,
      0.608280599117279,
      0.95915687084198,
      0.5876277685165405,
      0.037593744695186615,
      -0.8801289200782776,
      -0.5600877404212952,
      0.7142655253410339,
      -0.0387178473174572,
      -0.884723961353302,
      -0.18234030902385712,
      0.2568466365337372,
      0.3012802004814148,
      0.40450358390808105,
      0.10745174437761307,
      0.40828874707221985,
      -0.9364384412765503,
      -0.7290499210357666,
      0.221748948097229,
      -0.09349662065505981
    ]
  }
}