{
  "model": {
    "type": "matcha-conformer",
    "n_phones": 51,
    "d_model": 256,
    "n_enc_layers": 6,
    "n_heads": 4,
    "d_ff": 1024,
    "kernel_size": 9,
    "n_mels": 80,
    "n_phrase_types": 4,
    "n_style_dims": 5,
    "n_ode_steps": 4
  },
  "audio": {
    "sample_rate": 22050,
    "n_fft": 1024,
    "hop_length": 256,
    "n_mels": 80,
    "fmin": 0,
    "fmax": 8000
  },
  "enhance": {
    "spectral_alpha": 0.2,
    "temporal_alpha": 0.2,
    "noise_gate_threshold": -8.0,
    "silence_val": -11.5,
    "fade_frames": 5
  },
  "embeddings": {
    "pitch_emb_weight": [
      -0.9418396949768066,
      0.8849725723266602,
      0.08485978096723557,
      0.6537336707115173,
      0.5743070244789124,
      0.933506965637207,
      0.5418970584869385,
      -0.42623111605644226,
      0.4584905505180359,
      -0.5524073243141174,
      -0.4283381998538971,
      0.47283321619033813,
      -0.7025212645530701,
      -0.6716747879981995,
      -0.08289971202611923,
      -0.47460997104644775,
      -0.8180240392684937,
      0.3107845187187195,
      -0.954171359539032,
      -0.3735682964324951,
      -0.3098084330558777,
      -0.8312882781028748,
      -0.44625747203826904,
      0.12459196895360947,
      0.5796425342559814,
      -0.7243317365646362,
      -0.25355464220046997,
      0.5818766951560974,
      0.4602523148059845,
      -0.15080207586288452,
      -0.49527615308761597,
      0.7798516154289246,
      -0.02142423391342163,
      0.17669148743152618,
      0.11356755346059799,
      0.6749990582466125,
      0.339780330657959,
      0.2582438588142395,
      -0.2982465922832489,
      0.7632126808166504,
      0.46976324915885925,
      0.12479428946971893,
      -0.5584821105003357,
      -0.10953529924154282,
      -0.28528812527656555,
      0.25047174096107483,
      -0.33804476261138916,
      0.2047148048877716,
      0.6915387511253357,
      0.1712942123413086,
      0.5417031049728394,
      -0.9279874563217163,
      -0.4073042571544647,
      0.6768720746040344,
      -0.5909745693206787,
      0.44203099608421326,
      -0.43080025911331177,
      -0.6360092163085938,
      -0.4625996947288513,
      0.2862620949745178,
      -0.3087608218193054,
      0.8877619504928589,
      -0.2840830981731415,
      0.2135065197944641,
      -0.5400026440620422,
      -0.8896982669830322,
      0.08796336501836777,
      0.18707998096942902,
      0.19334577023983002,
      -0.8984905481338501,
      -0.6233243346214294,
      -0.3917505145072937,
      0.4501098096370697,
      0.5185894966125488,
      -0.5330626964569092,
      0.8794223070144653,
      0.4498371183872223,
      -0.5975068807601929,
      0.4437395930290222,
      0.3664585053920746,
      -0.3008895814418793,
      0.6926125884056091,
      0.8833644390106201,
      -0.5805409550666809,
      -0.44412076473236084,
      0.6281372904777527,
      0.6393994092941284,
      -0.45584166049957275,
      0.45479604601860046,
      0.31102505326271057,
      0.5030070543289185,
      0.7854106426239014,
      -0.1939142644405365,
      0.854153573513031,
      0.015393122099339962,
      -0.3285808563232422,
      -0.7180950045585632,
      0.12270703911781311,
      0.8344213962554932,
      -0.09169961512088776,
      0.31570059061050415,
      0.5938097834587097,
      -0.838445782661438,
      0.262970507144928,
      0.4619731605052948,
      0.6444711089134216,
      0.43776735663414,
      0.8983435034751892,
      -0.8367185592651367,
      -0.005889366380870342,
      0.359536737203598,
      -0.43278005719184875,
      -0.6224972009658813,
      -0.5493887662887573,
      -0.5801892280578613,
      0.7343324422836304,
      -0.5780264735221863,
      -0.6311396360397339,
      0.9015411138534546,
      0.25315895676612854,
      -0.028548510745167732,
      -0.14246751368045807,
      -0.28875601291656494,
      0.4322018027305603,
      0.38013648986816406,
      -0.07021201401948929,
      -0.5615827441215515,
      -0.742599606513977,
      0.48464375734329224,
      0.3977702856063843,
      -0.8142877817153931,
      0.30797338485717773,
      0.11947184056043625,
      -0.8600751161575317,
      0.719967782497406,
      -0.7389315366744995,
      -0.34782159328460693,
      -0.5960946083068848,
      -0.13910941779613495,
      -0.6353664398193359,
      0.2128647416830063,
      0.3903809189796448,
      -0.3019055724143982,
      0.6751362085342407,
      -0.41849368810653687,
      -0.4441744387149811,
      0.2841624915599823,
      -0.7210068702697754,
      -0.5918163061141968,
      -0.5474933385848999,
      0.6985684633255005,
      -0.37976697087287903,
      -0.26957228779792786,
      0.8637835383415222,
      -0.08530182391405106,
      -0.2933216094970703,
      0.5173812508583069,
      -0.7668194770812988,
      -0.7427694201469421,
      -0.05136830359697342,
      -0.8852898478507996,
      0.23276568949222565,
      0.6610239744186401,
      -0.09423321485519409,
      0.44967177510261536,
      0.1702212244272232,
      0.5399280786514282,
      0.037659693509340286,
      -0.3848724961280823,
      0.44517219066619873,
      0.9477666020393372,
      0.03089515119791031,
      0.4691162705421448,
      0.7345812320709229,
      0.6658354997634888,
      -0.8680118322372437,
      0.5467308163642883,
      0.6354377269744873,
      -0.7956112027168274,
      -0.5120600461959839,
      0.18146340548992157,
      0.6672093868255615,
      -0.2272709757089615,
      -0.5460863709449768,
      0.34796544909477234,
      -0.5930488705635071,
      -0.6819059252738953,
      0.4650041162967682,
      -0.5209433436393738,
      0.5407901406288147,
      0.44968920946121216,
      0.6057984232902527,
      -0.6895696520805359,
      0.7171011567115784,
      -0.6090453863143921,
      -0.5311434864997864,
      0.5679563283920288,
      0.3215654790401459,
      -0.08303245902061462,
      -0.8431022763252258,
      -0.5298281908035278,
      0.26464706659317017,
      -0.5945939421653748,
      -0.4396239221096039,
      0.8871135711669922,
      -0.49368906021118164,
      -0.8007308840751648,
      -0.3867073655128479,
      0.6584421396255493,
      0.04791795462369919,
      -0.3935717046260834,
      -0.6916171312332153,
      -0.09484882652759552,
      0.3526833653450012,
      0.648680567741394,
      0.6841791868209839,
      -0.6673745512962341,
      -0.15590007603168488,
      -0.4116705060005188,
      -0.3663443326950073,
      -0.7624033093452454,
      -0.878619909286499,
      -0.6741235256195068,
      0.3424490988254547,
      -0.8236075043678284,
      -0.5273133516311646,
      0.737703800201416,
      0.5431416034698486,
      -0.9077059626579285,
      0.4641835391521454,
      -0.8913196325302124,
      -0.420449823141098,
      -0.3168517053127289,
      0.6719804406166077,
      0.014175143092870712,
      0.45953425765037537,
      -0.8918325304985046,
      0.25355440378189087,
      -0.6873399019241333,
      0.7093948721885681,
      -0.8480235934257507,
      0.5667036771774292,
      0.5315056443214417,
      0.7742009162902832,
      0.6878572106361389,
      -0.01895231194794178,
      0.024431539699435234,
      0.6300094723701477,
      0.3223835527896881,
      -0.7222464680671692,
      0.312269926071167,
      -0.2096026986837387,
      0.03569332882761955,
      0.1349661648273468,
      -0.918609082698822,
      0.6386376023292542
    ],
    "pitch_emb_bias": [
      0.53299480676651,
      0.11413846909999847,
      0.6068974137306213,
      0.48553746938705444,
      0.41591086983680725,
      -0.12255130708217621,
      0.6899418830871582,
      -0.9314639568328857,
      -0.21917247772216797,
      0.1117740347981453,
      -0.7618076205253601,
      -0.7989276051521301,
      0.7424692511558533,
      0.5856941342353821,
      -0.5131445527076721,
      -0.555353581905365,
      1.0161268711090088,
      -0.3482603132724762,
      -0.3838905394077301,
      -0.10076888650655746,
      -0.18507996201515198,
      0.35953807830810547,
      0.3844898045063019,
      0.433155357837677,
      -0.23372432589530945,
      0.039553381502628326,
      -0.8445996046066284,
      0.597974956035614,
      0.6516581177711487,
      0.012598960660398006,
      0.3158787786960602,
      0.2662539780139923,
      0.8719093799591064,
      -0.016288286074995995,
      0.03307417035102844,
      0.7133878469467163,
      -0.821929931640625,
      -0.39760035276412964,
      -0.18470993638038635,
      0.32474419474601746,
      -0.7436869740486145,
      0.14478005468845367,
      -0.6383317112922668,
      -0.7425289750099182,
      0.39100393652915955,
      -0.3968654274940491,
      0.5222578644752502,
      -0.657811164855957,
      -0.26362645626068115,
      -0.9987050294876099,
      0.5895667672157288,
      -0.8083603382110596,
      -0.679038941860199,
      -0.5424216389656067,
      -0.4702054262161255,
      0.39019858837127686,
      0.9114745855331421,
      -0.600277841091156,
      -0.5709505081176758,
      -0.7745947241783142,
      1.0109950304031372,
      -0.46863850951194763,
      -0.6859630346298218,
      0.25890007615089417,
      0.5644136667251587,
      0.6306215524673462,
      -0.2714635729789734,
      0.8299973607063293,
      0.6596674919128418,
      -0.16049396991729736,
      0.11032616347074509,
      -0.4855155348777771,
      -0.17725946009159088,
      -0.9364714622497559,
      0.41385510563850403,
      -0.9414152503013611,
      0.6196272969245911,
      -0.3836463987827301,
      -0.5916696786880493,
      -0.02390822023153305,
      0.22732360661029816,
      0.8270528316497803,
      0.4143010079860687,
      -0.09120982885360718,
      -0.1405249983072281,
      -0.4143979549407959,
      0.7932199835777283,
      0.3281669020652771,
      -0.25720468163490295,
      0.8952502608299255,
      -0.7495754957199097,
      0.6720877289772034,
      0.5131101608276367,
      -0.47617533802986145,
      -0.6786097288131714,
      0.02845008298754692,
      0.6706733703613281,
      0.09491284191608429,
      -0.6994180083274841,
      -1.0156729221343994,
      -0.8711175322532654,
      -0.9714592099189758,
      -0.8051612377166748,
      0.5806146860122681,
      0.8042809367179871,
      0.15866146981716156,
      -0.6208750605583191,
      0.005152963567525148,
      1.0000120401382446,
      -0.9763624668121338,
      -0.26160576939582825,
      -0.6374790072441101,
      -0.00013602439139503986,
      0.7758343815803528,
      0.9382253885269165,
      0.3951263725757599,
      -0.32117992639541626,
      -0.4651692807674408,
      0.2128235399723053,
      -0.37953826785087585,
      0.1350603848695755,
      0.8094418048858643,
      -0.3674570620059967,
      -0.14760130643844604,
      -0.4934307932853699,
      -0.0009270075242966413,
      0.3109753429889679,
      -0.23511739075183868,
      -0.8121364712715149,
      -1.0072317123413086,
      -0.25724098086357117,
      -0.1975652426481247,
      -0.32877594232559204,
      0.6778339743614197,
      -0.15561799705028534,
      -0.7704260945320129,
      0.051006756722927094,
      0.24189624190330505,
      0.6687530875205994,
      0.2674773037433624,
      -0.13253840804100037,
      0.1174423098564148,
      -0.2025781124830246,
      -0.6430906057357788,
      -0.21133862435817719,
      -0.04793539270758629,
      -0.24693161249160767,
      -0.42719778418540955,
      -0.22134214639663696,
      -0.6584799289703369,
      -0.507712185382843,
      0.7184563279151917,
      0.09012117981910706,
      -0.3710401654243469,
      -0.616468608379364,
      0.5601034164428711,
      -0.5840126276016235,
      -0.5065780282020569,
      0.1967344582080841,
      -0.41876712441444397,
      -0.7410323619842529,
      -0.8878701329231262,
      -0.3971423804759979,
      0.5217490792274475,
      -0.6602137088775635,
      0.46445369720458984,
      -0.7270791530609131,
      -0.9820836186408997,
      0.3845156729221344,
      0.014574216678738594,
      -0.6285709738731384,
      0.9588491916656494,
      -0.2348071038722992,
      0.6480014324188232,
      -0.861672580242157,
      0.08217955380678177,
      -0.13024145364761353,
      -0.9859766960144043,
      0.7599185109138489,
      -0.9519669413566589,
      0.8051047921180725,
      0.5275948643684387,
      0.5084760189056396,
      0.5575036406517029,
      -0.692234218120575,
      -0.19764898717403412,
      0.8684498071670532,
      0.07256531715393066,
      0.33477142453193665,
      -0.3434462249279022,
      -0.473787397146225,
      -0.2933318018913269,
      -0.8339191675186157,
      -0.24782617390155792,
      -0.741357684135437,
      -0.30428898334503174,
      -0.26567959785461426,
      0.7107980847358704,
      0.24579527974128723,
      -0.7375363707542419,
      -0.36931124329566956,
      -0.2139744609594345,
      0.2938077747821808,
      0.7793711423873901,
      -0.44894707202911377,
      0.02347373776137829,
      0.0013089030981063843,
      0.7697426676750183,
      0.6875824928283691,
      -0.6173185706138611,
      0.40434756875038147,
      0.29883575439453125,
      0.47065380215644836,
      0.032334502786397934,
      0.12745483219623566,
      -0.3902897238731384,
      0.6647783517837524,
      0.14781410992145538,
      -0.4909784495830536,
      0.03220821171998978,
      -0.12587912380695343,
      -0.49817705154418945,
      0.9709082245826721,
      0.33498987555503845,
      0.28938642144203186,
      -0.860630452632904,
      0.20484000444412231,
      0.8007802963256836,
      0.7785997986793518,
      -0.8000516295433044,
      -0.2139459103345871,
      0.8137526512145996,
      0.7588823437690735,
      0.28053709864616394,
      -0.18822512030601501,
      0.7328008413314819,
      0.4792845845222473,
      -0.7290977835655212,
      0.8782520890235901,
      -0.5756811499595642,
      0.1500627100467682,
      -0.9888587594032288,
      0.22168003022670746,
      -0.9252730011940002,
      -0.5489723086357117,
      -0.9515970349311829,
      0.0797029435634613,
      -0.6160020232200623,
      0.5194383859634399,
      1.0068137645721436,
      0.9570916295051575,
      -0.616877555847168,
      0.5065814256668091,
      0.5721221566200256,
      -0.16989797353744507,
      0.06113702431321144
    ],
    "energy_emb_weight": [
      -0.01935448683798313,
      0.15699823200702667,
      0.21858938038349152,
      0.6680921316146851,
      0.05912528932094574,
      -0.16962453722953796,
      0.4765624701976776,
      -0.09506770223379135,
      0.9260068535804749,
      -0.047679610550403595,
      0.11357326805591583,
      0.8790642619132996,
      0.27211058139801025,
      0.4574424922466278,
      -0.0324854739010334,
      -0.9456926584243774,
      -0.6276689767837524,
      0.4755460023880005,
      -0.574475109577179,
      -0.8421463966369629,
      0.4029792547225952,
      0.0808996707201004,
      -0.5579419732093811,
      -0.6483493447303772,
      -0.7617949843406677,
      0.41820549964904785,
      -0.8578237295150757,
      0.557811975479126,
      -0.23062995076179504,
      -0.24848303198814392,
      -0.13879749178886414,
      0.7585257887840271,
      -0.6797869801521301,
      0.34132885932922363,
      0.3330492377281189,
      0.33951839804649353,
      0.6044556498527527,
      -0.6541195511817932,
      -0.028476053848862648,
      0.28752705454826355,
      0.8844757676124573,
      -0.9203570485115051,
      0.681037962436676,
      -0.5008558034896851,
      -0.8227311372756958,
      -0.3970559239387512,
      -0.07218426465988159,
      0.41190123558044434,
      0.3553221523761749,
      -0.5101834535598755,
      0.05077618733048439,
      -0.19097527861595154,
      -0.7409381866455078,
      0.8366163372993469,
      -0.5791382789611816,
      -0.8828532695770264,
      0.4486899673938751,
      0.384549081325531,
      -0.5602745413780212,
      0.4037913382053375,
      0.2110307216644287,
      0.10004977136850357,
      0.6986318230628967,
      -0.4407939314842224,
      0.7416753172874451,
      0.9082756638526917,
      -0.24185700714588165,
      0.877038300037384,
      0.46530890464782715,
      -0.2672902047634125,
      -0.6269007325172424,
      -0.8718549013137817,
      -0.09811551123857498,
      0.14543725550174713,
      0.28602153062820435,
      -0.39060935378074646,
      0.04996815696358681,
      0.48444876074790955,
      0.18257802724838257,
      -0.13578711450099945,
      0.7798588275909424,
      0.8467380404472351,
      0.8630416393280029,
      0.2699365019798279,
      0.5945506691932678,
      0.2875155806541443,
      1.0053426027297974,
      0.32264837622642517,
      -0.18567921221256256,
      0.08513219654560089,
      0.6473482251167297,
      -0.0138149568811059,
      -0.24246568977832794,
      0.8686321377754211,
      0.7398790121078491,
      -0.9414567947387695,
      -0.663424551486969,
      -0.72541344165802,
      0.5865580439567566,
      -0.27026069164276123,
      -0.6439654231071472,
      0.18523742258548737,
      -0.028536463156342506,
      -0.32378748059272766,
      0.7303174734115601,
      -0.8347641825675964,
      -0.8929398655891418,
      0.4990759789943695,
      0.06817235052585602,
      -0.0049527292139828205,
      0.72616046667099,
      -0.5967137813568115,
      -0.5346850752830505,
      0.7102876305580139,
      0.9038875102996826,
      -0.19352231919765472,
      0.2567395567893982,
      0.5986141562461853,
      0.012228177860379219,
      -0.10847543179988861,
      -0.08493414521217346,
      -0.5157879590988159,
      -0.7648255825042725,
      0.47574496269226074,
      0.3221719264984131,
      0.07611624151468277,
      -0.8318476676940918,
      -0.31679102778434753,
      -0.6471573114395142,
      -0.7991911172866821,
      0.5715813636779785,
      0.7008381485939026,
      -0.06504873186349869,
      0.6601707339286804,
      0.5035750269889832,
      -0.2950424551963806,
      -0.12674805521965027,
      0.2890795171260834,
      -0.21762391924858093,
      -0.2684045135974884,
      -0.19141359627246857,
      0.6936944723129272,
      -0.48205599188804626,
      -0.6380771994590759,
      0.2557600438594818,
      0.3878694176673889,
      -0.4260254502296448,
      -0.22367648780345917,
      -0.10906804352998734,
      -0.18063423037528992,
      0.34341996908187866,
      -0.23761671781539917,
      0.22871315479278564,
      -0.49138906598091125,
      -0.6930475831031799,
      -0.5463935732841492,
      -0.4501124620437622,
      0.44349032640457153,
      0.12131045758724213,
      -0.8500338196754456,
      -0.33798789978027344,
      0.44936737418174744,
      -0.705471396446228,
      0.18017947673797607,
      0.6220760345458984,
      0.5586698055267334,
      0.31829556822776794,
      -0.08467521518468857,
      -0.45216357707977295,
      0.7436376214027405,
      -0.9356595277786255,
      0.8064572215080261,
      0.12160531431436539,
      -0.6851772665977478,
      -0.5913779735565186,
      -0.24504195153713226,
      0.21891508996486664,
      -0.33056843280792236,
      0.24687853455543518,
      0.5269704461097717,
      0.4352912902832031,
      -0.3825693726539612,
      0.3142087161540985,
      -0.8565211296081543,
      0.3514079749584198,
      -0.601077139377594,
      0.8579698801040649,
      -0.4976433217525482,
      -0.006240458693355322,
      -0.7178691029548645,
      -0.32296067476272583,
      0.9341895580291748,
      0.1823738068342209,
      0.5251602530479431,
      -0.6774312853813171,
      -0.6435186266899109,
      0.5756922364234924,
      -0.9168500900268555,
      -0.0476924329996109,
      0.6608423590660095,
      0.4114006459712982,
      0.5113959312438965,
      -0.8719037175178528,
      -0.8278516530990601,
      -0.8684667348861694,
      0.845960259437561,
      -0.3701585829257965,
      -0.43193548917770386,
      -0.3688526451587677,
      -0.5813485383987427,
      -0.48437273502349854,
      0.3702784478664398,
      -0.5534148216247559,
      0.7950777411460876,
      -0.30375224351882935,
      -0.04008426517248154,
      -0.5617501735687256,
      -0.9324686527252197,
      0.9771998524665833,
      0.27697107195854187,
      -0.20471559464931488,
      -0.2874903976917267,
      0.2941261827945709,
      0.8091917634010315,
      0.7460390329360962,
      0.733235776424408,
      -0.8166499137878418,
      0.9151947498321533,
      0.04385559633374214,
      0.892899751663208,
      -0.6242674589157104,
      0.4674833118915558,
      -0.8815367221832275,
      -0.5489378571510315,
      0.4732842445373535,
      -0.29973718523979187,
      -0.7630326747894287,
      -0.4171971082687378,
      -0.3405553102493286,
      0.8221696019172668,
      -0.2960382103919983,
      0.9765123724937439,
      -0.2991051971912384,
      0.177564799785614,
      -0.5795077681541443,
      0.7106135487556458,
      -0.7871288657188416,
      -0.4592752456665039,
      -0.4418603181838989,
      0.9142393469810486,
      0.38454413414001465,
      -0.2565802335739136,
      -0.4422284960746765,
      0.6597779989242554,
      -0.9037986993789673,
      0.32459014654159546
    ],
    "energy_emb_bias": [
      -0.7067299485206604,
      -0.1758611798286438,
      -0.6291727423667908,
      -0.4184625446796417,
      -0.45975765585899353,
      -0.5464547276496887,
      -0.5106331706047058,
      -0.19882215559482574,
      0.5234606862068176,
      -0.14073048532009125,
      -0.43379607796669006,
      -0.6295519471168518,
      -0.43348461389541626,
      0.546072781085968,
      -0.3152548670768738,
      0.4191145896911621,
      -0.5606926083564758,
      -0.7435960173606873,
      0.0431361049413681,
      0.4069384038448334,
      -0.7653189301490784,
      0.39575350284576416,
      0.5542547702789307,
      0.06752124428749084,
      0.9238468408584595,
      0.014251312240958214,
      -0.6012378931045532,
      -0.8223828673362732,
      -0.8886192440986633,
      -0.3414955139160156,
      0.9979297518730164,
      -0.9873510599136353,
      -0.9582216739654541,
      -0.5882318615913391,
      -0.4086560606956482,
      0.7122474908828735,
      -0.11649701744318008,
      0.5849094986915588,
      -0.17885974049568176,
      0.9196236729621887,
      0.5020748972892761,
      0.4728468954563141,
      -0.9279090762138367,
      -0.45526379346847534,
      0.9669902920722961,
      -0.8298733830451965,
      0.6428452134132385,
      0.9241913557052612,
      0.15857267379760742,
      0.9137756824493408,
      -0.2021617740392685,
      -0.19006185233592987,
      -0.7554343342781067,
      0.28301408886909485,
      -0.40988659858703613,
      0.006396232172846794,
      -0.5576596260070801,
      0.0972704067826271,
      -0.8876255750656128,
      -0.6858120560646057,
      -0.06737832725048065,
      -0.2927115857601166,
      0.8236091136932373,
      0.8139920830726624,
      0.6217949390411377,
      -0.6360456943511963,
      0.09389537572860718,
      -0.16078774631023407,
      0.7029523849487305,
      0.8099240064620972,
      -0.5617592930793762,
      -0.8865655660629272,
      0.6420170068740845,
      0.05620577558875084,
      0.9194566011428833,
      -0.035494934767484665,
      0.1469959020614624,
      -0.9425569772720337,
      -0.6527115106582642,
      0.2549592852592468,
      -0.7899907827377319,
      0.18437662720680237,
      0.23699630796909332,
      0.04125094413757324,
      0.9896470308303833,
      -0.9165966510772705,
      0.5293496251106262,
      0.7597849369049072,
      -0.42849400639533997,
      0.7403684258460999,
      0.2943597435951233,
      0.6704654097557068,
      0.6438037157058716,
      -0.9910216331481934,
      0.6786342859268188,
      -0.2252112627029419,
      0.37547361850738525,
      0.18555070459842682,
      0.005291807930916548,
      0.9395968914031982,
      0.20720244944095612,
      -0.028052926063537598,
      0.3594476282596588,
      -0.8095245361328125,
      -0.27596017718315125,
      0.21248064935207367,
      -0.864070475101471,
      -0.42718228697776794,
      0.9373967051506042,
      0.16191454231739044,
      0.488543838262558,
      0.7645902037620544,
      0.016179924830794334,
      0.805569589138031,
      -0.003121338551864028,
      0.2299633026123047,
      0.4502485394477844,
      0.9884315729141235,
      -1.031874418258667,
      -0.5958690643310547,
      0.021701687946915627,
      0.5345202684402466,
      -0.9480506181716919,
      0.1537012755870819,
      0.388366162776947,
      -0.6782932877540588,
      0.5622338652610779,
      0.0951039046049118,
      -0.22306320071220398,
      -0.04170245677232742,
      0.25421279668807983,
      0.05051031708717346,
      -0.44479507207870483,
      -0.26049333810806274,
      -0.34581640362739563,
      -0.45931997895240784,
      0.602883517742157,
      -0.06179157271981239,
      0.8065251708030701,
      -0.45859673619270325,
      0.09780257940292358,
      -0.7115640044212341,
      0.28480464220046997,
      0.258975088596344,
      -0.061696697026491165,
      0.023500392213463783,
      0.7583739161491394,
      0.8556252121925354,
      0.537800133228302,
      -0.2069132924079895,
      0.7557621002197266,
      0.0876472145318985,
      -0.48120948672294617,
      -0.9148417115211487,
      -0.33647432923316956,
      -0.5047966241836548,
      0.9448721408843994,
      -0.5400646328926086,
      0.26864093542099,
      -0.31250646710395813,
      0.24153465032577515,
      0.23757284879684448,
      0.06638989597558975,
      -0.5937547087669373,
      -0.45610398054122925,
      0.04148881882429123,
      -0.9928982257843018,
      -0.5317162871360779,
      -0.9122397899627686,
      -0.17483805119991302,
      -0.9298930764198303,
      0.6321063041687012,
      -0.8707841634750366,
      -0.3622724711894989,
      -0.3856571614742279,
      -0.4439900815486908,
      -0.7910441160202026,
      0.1156965121626854,
      0.9586285948753357,
      -0.1864236295223236,
      -0.5945762991905212,
      -0.3741106688976288,
      -0.8126286268234253,
      0.3757946491241455,
      -0.03072463534772396,
      -0.6273073554039001,
      0.7428890466690063,
      0.6532922387123108,
      0.8473203182220459,
      -0.6077994108200073,
      0.060983285307884216,
      -0.9776235222816467,
      -0.9192739725112915,
      0.9106124043464661,
      0.09429554641246796,
      0.36800527572631836,
      -0.6658176779747009,
      -0.4348982870578766,
      0.22357717156410217,
      -0.4807009994983673,
      0.525078535079956,
      0.01236184872686863,
      0.3704017698764801,
      0.7266955375671387,
      0.8191748857498169,
      -0.4801405966281891,
      0.887566864490509,
      -0.9071937203407288,
      -0.5210921764373779,
      -0.7796153426170349,
      0.8539310693740845,
      -0.0380268432199955,
      -0.686022162437439,
      0.2992264926433563,
      -0.8234372735023499,
      -0.37221235036849976,
      1.0096089839935303,
      0.21124128997325897,
      -0.032984815537929535,
      -0.4864622950553894,
      0.20827321708202362,
      -0.3047640025615692,
      -0.1574684977531433,
      -0.36147549748420715,
      -0.3460577428340912,
      0.6966211199760437,
      -0.20873624086380005,
      0.7135199308395386,
      -0.906825602054596,
      -0.6676999926567078,
      0.3731355369091034,
      -0.1268131285905838,
      -0.33269184827804565,
      -0.5096916556358337,
      -0.517449676990509,
      0.3554486632347107,
      -0.06248708814382553,
      -0.6298832297325134,
      1.0175541639328003,
      0.9079387784004211,
      -0.8190529942512512,
      0.5381274819374084,
      0.6309681534767151,
      0.14952588081359863,
      0.6415955424308777,
      0.672029435634613,
      -0.6407650113105774,
      -0.3327215015888214,
      -0.8764247894287109,
      0.9727994799613953,
      0.838559091091156,
      -0.42731165885925293,
      0.40787896513938904,
      0.3606923222541809,
      -0.19476503133773804,
      0.37519198656082153
    ]
  }
}